188.2977
-190.7751
-190.7575
-20.73679
-190.3859
-190.7756
190.7602
190.7292
-190.1003
-0.1729084
0
0
0
0
0
0
0
0
0
0.1355513
0.1812977
-0.08822585
0.07515259
0
0
0
0
0
0
0
0
0
0
3844.172
1002.249
565.955
3313.429
911.4228
3159.715
4061.411
1221.874
2267.508
3645.017
460.2881
2747.363
3874.195
682.4905
2964.72
200.0901
304.4231
80.24516
-192.3221
1037.502
2809.322
-597.2858
1259.836
2983.183
-2960.064
1629.666
3159.231
-3401.173
1705.981
2855.287
-2900.768
1726.284
2954.619
-2692.192
-907.6334
1035.136
-1342.566
848.9208
690.4647
2098.879
-689.0629
827.3348
2347.676
-3141.191
1061.625
2203.551
-3516.504
1152.563
2178.812
-3311.072
1012.507
2386.203
-3190.721
48.26174
-11.96097
-281.4836
-125.9265
415.0254
-6845.995
-367.4865
698.0296
-9899.824
-873.3883
-378.5653
-10328.34
-167.8522
-690.2231
-10507.04
-52.75565
-153.444
-9973.386
-1069.14
-623.362
47.57227
346.3448
132.191
1029.218
-2745.226
-922.5598
743.1256
-3332.938
-4013.968
365.9114
-3758.955
-3783.452
614.0668
-3419.981
-3710.956
612.6569
-3170.634
-3955.679
286.579
-638.2115
674.9004
-693.469
-3555.373
-504.6523
-413.5044
-2901.805
-333.2887
-3072.257
-3604.662
-342.0402
-2501.193
-3036.357
-45.06063
-2597.535
-3299.595
-76.31673
-2917.481
-577.8267
110.2912
-534.8297
565.3195
-1598.133
-2289.198
574.452
-1770.299
-2223.788
3010.607
-2174.299
-2566.907
3364.835
-2281.679
-2119.135
2658.874
-2412.759
-2120.968
2451.427
1766.148
-1890.571
2128.324
-1634.922
2535.157
2167.09
769.828
2271.35
2117.197
3632.478
3134.844
2782.814
3029.849
2681.735
1998.932
3555.019
3039.622
1772.846
3908.739
-1371.661
1897.552
-1660.59
1512.093
6376.955
-174.2473
-1275.198
5179.688
-908.2457
-4199.616
5907.1
-1495.762
-5162.688
5599.253
-1509.212
-4712.065
5750.728
-958.6952
-4477.235
1153.783
-948.9381
1184.942
-1696.96
-6997.715
-188.5608
418.7701
-7184.473
37.41269
881.913
-8301.315
14.78216
1760.186
-8245.425
1103.929
1354.354
-8302.324
1034.049
548.6456
-146.3483
-285.8424
-138.7349
520.8083
0.06936716
0.05426546
-0.09321347
0.09645805
-0.0545168
-0.01764554
-0.05975146
0.1781418
0.07789581
-0.1879966
-0.04794239
-0.187389
-0.1572156
0.1450721
0.06854968
-0.01197323
0.179698
-0.1238956
0.06525834
0.06134479
-0.06403913
-0.06901826
-0.1115113
-0.1168618
-0.06712575
0.155934
0.009648284
0.02254687
-0.1907115
0.1921014
0.032918
-0.07193302
-0.05643644
-0.1288241
-0.07574898
-0.04120183
0.1152603
-0.01566977
0.03559148
-0.070945
