4134.849
13507.4
16833.88
-856.8481
5958.416
-5822.666
892.8528
-1765.933
0
0
0
0
0
0
262144
262144
262144
213852
262144
0
0
0
0
0
0
0
0
32976.04
6669.688
76121.45
-33015.91
64976.96
-11767.74
71008.15
-28418.32
69103.11
-28099.56
793.4625
6130.944
-1102.836
3217.383
-8547.087
12201.28
21298.08
27731.85
21377.15
46712.9
20382.11
15343.11
28336.98
46615.7
9605.968
8218.556
10123.36
9111.848
-8304.287
9815.608
-38095.49
-69021.83
-15684.31
-41847.98
-60657.42
-63955.54
-41916.13
-43499.16
13888.35
11599.33
12000.62
11427.56
10585.92
17213.21
16764.72
52349.38
11392.53
63207.41
18352.91
46881.14
23500.45
59520.14
529.6367
-557.6559
275.9768
-1935.46
-5634.062
6690.476
25911.97
36234.63
24614.28
47772.32
28224.56
33710.67
29982.93
49369.73
4455.379
1165.016
5265.765
2411.187
27309.3
-9070.119
60070.25
-42383.76
56097.03
-34771.32
66011.94
-29304.95
50049.89
-42691.61
-526.3582
-4970.918
-1161.149
-6303.902
-12254.46
-17085.61
-48802.66
-45654.23
-39718.29
-55336.89
-52318.9
-52191.95
-50777.18
-52970.36
2382.248
-2480.003
3917.069
-1902.987
905.1213
24309.23
-2762.672
57500.2
-13507
71161.82
-10544.36
57288.36
-6794.829
70870.55
1432.781
-1386.643
-823.1323
-2943.467
0.006599207
0.06627879
0.1765551
0.04657434
-0.04803607
0.01604013
0.03905821
-0.09745599
-0.1142881
0.06047284
0.05651513
-0.1008798
0.03621447
-0.004040455
0.07506698
-0.1223862
-0.00274764
0.04445165
0.1356074
-0.03387857
0.00904999
-0.07041549
-0.04775764
0.06396063
0.009144564
-0.03202778
0.03340478
-0.0445113
-0.005619276
-0.05228843
0.02069653
0.04702401
-0.00982473
0.03809004
0.2501279
0.008835742
-0.06309588
-0.00739602
0.1339128
0.08623286
