28308.35
-531.3989
3760.39
7619.123
51520.03
5964.577
-0.01896016
0.2735107
0.2860025
-0.3176172
-0.1892894
0.07655668
-0.4469526
-0.1911809
262144
-65535.87
-65535.98
-43305.09
262144
0.07624349
-0.3878313
0.4972503
0.3754321
0.2410155
-0.04901256
14867.39
13054.86
8054.269
27079.38
4304.08
23284.68
-13243.68
-8709.445
33215.88
-61430.37
35244.84
-66385.95
26487.09
-109286
15331.26
8736.627
575.3014
-1506.632
1755.41
-1737.425
51761.73
29648.69
64422.99
60688.21
13949.02
73339.65
4042.051
94179.46
-2373.1
24455.26
2013.616
2591.407
1666.503
2403.286
49674.96
80842.34
49864.26
84030.82
29044.07
94215.15
25054.61
73005.56
33211.22
6071.195
2816.498
6430.6
1807.545
5858.565
69096.77
-31533.6
65292.81
9930.542
71907.01
-30094.62
20701.79
12829.73
41764.7
45517.16
23198.93
45897.66
17111.08
38990.64
-14611.4
-40138.89
18497.78
7236.326
3090.72
5664.54
-565.0133
15947.02
36743.54
-17437.98
1851.488
5127.149
2266.545
3753.464
66937.64
-1059.604
70710.41
-32421.21
72261.73
-45600.37
35248.99
-61688.14
-0.02822574
-0.007690077
0.0825547
0.05248466
0.6337718
0.02952781
-0.06154267
0.002330092
-0.03489339
0.1105514
-0.2846713
0.0186289
0.08457991
0.0007395064
-0.01666261
-0.08219721
-0.1551751
-0.01440995
0.04537061
0.02666291
-0.08908471
-0.03611599
-0.0927669
0.06920106
-0.02715901
-0.03461435
0.0828358
-0.05389427
0.2647008
-0.09074575
